<?xml version="1.0"?>
<opencv_storage>
<cascade>
  <stageType>BOOST</stageType>
  <featureType>HAAR</featureType>
  <height>20</height>
  <width>20</width>
  <stageParams>
    <boostType>GAB</boostType>
    <minHitRate>9.9500000476837158e-01</minHitRate>
    <maxFalseAlarm>5.0000000000000000e-01</maxFalseAlarm>
    <weightTrimRate>9.4999999999999996e-01</weightTrimRate>
    <maxDepth>1</maxDepth>
    <maxWeakCount>100</maxWeakCount></stageParams>
  <featureParams>
    <maxCatCount>0</maxCatCount>
    <featSize>1</featSize>
    <mode>BASIC</mode></featureParams>
  <stageNum>3</stageNum>
  <stages>
    <!-- stage 0 -->
    <_>
      <maxWeakCount>3</maxWeakCount>
      <stageThreshold>-6.3272428512573242e-01</stageThreshold>
      <weakClassifiers>
        <_>
          <internalNodes>
            0 -1 3 2.0146273076534271e-02</internalNodes>
          <leafValues>
            -7.7022975683212280e-01 7.4638485908508301e-01</leafValues></_>
        <_>
          <internalNodes>
            0 -1 6 2.2189414128661156e-02</internalNodes>
          <leafValues>
            -7.0425844192504883e-01 7.2502541542053223e-01</leafValues></_>
        <_>
          <internalNodes>
            0 -1 2 9.2392593622207642e-02</internalNodes>
          <leafValues>
            -5.2486151456832886e-01 8.4176391363143921e-01</leafValues></_></weakClassifiers></_>
    <!-- stage 1 -->
    <_>
      <maxWeakCount>3</maxWeakCount>
      <stageThreshold>-1.0016239881515503e+00</stageThreshold>
      <weakClassifiers>
        <_>
          <internalNodes>
            0 -1 5 -6.9548621773719788e-02</internalNodes>
          <leafValues>
            7.8838711977005005e-01 -6.3200002908706665e-01</leafValues></_>
        <_>
          <internalNodes>
            0 -1 10 -4.6244966797530651e-03</internalNodes>
          <leafValues>
            5.3156352043151855e-01 -8.1920665502548218e-01</leafValues></_>
        <_>
          <internalNodes>
            0 -1 0 -1.2409091927111149e-02</internalNodes>
          <leafValues>
            4.4958269596099854e-01 -7.9645252227783203e-01</leafValues></_></weakClassifiers></_>
    <!-- stage 2 -->
    <_>
      <maxWeakCount>5</maxWeakCount>
      <stageThreshold>-1.0048738718032837e+00</stageThreshold>
      <weakClassifiers>
        <_>
          <internalNodes>
            0 -1 4 -5.7270132005214691e-02</internalNodes>
          <leafValues>
            7.8370785713195801e-01 -5.5387204885482788e-01</leafValues></_>
        <_>
          <internalNodes>
            0 -1 9 -7.6952362433075905e-03</internalNodes>
          <leafValues>
            6.1913669109344482e-01 -6.1118960380554199e-01</leafValues></_>
        <_>
          <internalNodes>
            0 -1 8 -4.4576682150363922e-02</internalNodes>
          <leafValues>
            5.7254743576049805e-01 -6.7820936441421509e-01</leafValues></_>
        <_>
          <internalNodes>
            0 -1 7 -2.1096061915159225e-02</internalNodes>
          <leafValues>
            3.8523420691490173e-01 -7.1923369169235229e-01</leafValues></_>
        <_>
          <internalNodes>
            0 -1 1 8.6678483057767153e-04</internalNodes>
          <leafValues>
            -7.9759383201599121e-01 3.5054802894592285e-01</leafValues></_></weakClassifiers></_></stages>
  <features>
    <_>
      <rects>
        <_>
          0 3 12 3 -1.</_>
        <_>
          4 3 4 3 3.</_></rects>
      <tilted>0</tilted></_>
    <_>
      <rects>
        <_>
          1 2 6 12 -1.</_>
        <_>
          1 8 6 6 2.</_></rects>
      <tilted>0</tilted></_>
    <_>
      <rects>
        <_>
          2 8 14 9 -1.</_>
        <_>
          2 11 14 3 3.</_></rects>
      <tilted>0</tilted></_>
    <_>
      <rects>
        <_>
          3 0 6 8 -1.</_>
        <_>
          3 0 3 4 2.</_>
        <_>
          6 4 3 4 2.</_></rects>
      <tilted>0</tilted></_>
    <_>
      <rects>
        <_>
          6 7 8 6 -1.</_>
        <_>
          6 9 8 2 3.</_></rects>
      <tilted>0</tilted></_>
    <_>
      <rects>
        <_>
          7 0 12 8 -1.</_>
        <_>
          7 0 6 4 2.</_>
        <_>
          13 4 6 4 2.</_></rects>
      <tilted>0</tilted></_>
    <_>
      <rects>
        <_>
          7 5 6 7 -1.</_>
        <_>
          9 5 2 7 3.</_></rects>
      <tilted>0</tilted></_>
    <_>
      <rects>
        <_>
          9 4 8 5 -1.</_>
        <_>
          13 4 4 5 2.</_></rects>
      <tilted>0</tilted></_>
    <_>
      <rects>
        <_>
          9 6 7 14 -1.</_>
        <_>
          9 13 7 7 2.</_></rects>
      <tilted>0</tilted></_>
    <_>
      <rects>
        <_>
          9 9 4 2 -1.</_>
        <_>
          11 9 2 2 2.</_></rects>
      <tilted>0</tilted></_>
    <_>
      <rects>
        <_>
          15 1 1 9 -1.</_>
        <_>
          15 4 1 3 3.</_></rects>
      <tilted>0</tilted></_></features></cascade>
</opencv_storage>
