<?xml version="1.0"?>
<opencv_storage>
<stage0>
  <maxWeakCount>6</maxWeakCount>
  <stageThreshold>-1.5753446817398071e+00</stageThreshold>
  <weakClassifiers>
    <_>
      <internalNodes>
        0 -1 17492 4.9209967255592346e-02</internalNodes>
      <leafValues>
        -7.6563656330108643e-01 7.0964467525482178e-01</leafValues></_>
    <_>
      <internalNodes>
        0 -1 44008 1.2041408568620682e-02</internalNodes>
      <leafValues>
        -5.8312749862670898e-01 8.0900037288665771e-01</leafValues></_>
    <_>
      <internalNodes>
        0 -1 57348 -7.2035426273941994e-03</internalNodes>
      <leafValues>
        4.1085675358772278e-01 -8.1132531166076660e-01</leafValues></_>
    <_>
      <internalNodes>
        0 -1 24078 5.0016166642308235e-03</internalNodes>
      <leafValues>
        -6.4498484134674072e-01 4.8345226049423218e-01</leafValues></_>
    <_>
      <internalNodes>
        0 -1 57429 -7.6745180413126945e-03</internalNodes>
      <leafValues>
        6.6190749406814575e-01 -4.2768478393554688e-01</leafValues></_>
    <_>
      <internalNodes>
        0 -1 73757 -6.8440665490925312e-03</internalNodes>
      <leafValues>
        4.3523225188255310e-01 -5.8403849601745605e-01</leafValues></_></weakClassifiers></stage0>
</opencv_storage>
